<?xml version="1.0"?>
<opencv_storage>
<cascade>
  <stageType>BOOST</stageType>
  <featureType>HAAR</featureType>
  <height>24</height>
  <width>24</width>
  <stageParams>
    <boostType>GAB</boostType>
    <minHitRate>9.9500000476837158e-01</minHitRate>
    <maxFalseAlarm>5.0000000000000000e-01</maxFalseAlarm>
    <weightTrimRate>9.4999999999999996e-01</weightTrimRate>
    <maxDepth>1</maxDepth>
    <maxWeakCount>100</maxWeakCount></stageParams>
  <featureParams>
    <maxCatCount>0</maxCatCount>
    <featSize>1</featSize>
    <mode>BASIC</mode></featureParams>
  <stageNum>8</stageNum>
  <stages>
    <!-- stage 0 -->
    <_>
      <maxWeakCount>1</maxWeakCount>
      <stageThreshold>9.9975001811981201e-01</stageThreshold>
      <weakClassifiers>
        <_>
          <internalNodes>
            0 -1 1 1.6966972500085831e-02</internalNodes>
          <leafValues>
            -1. 9.9975001811981201e-01</leafValues></_></weakClassifiers></_>
    <!-- stage 1 -->
    <_>
      <maxWeakCount>1</maxWeakCount>
      <stageThreshold>9.9975001811981201e-01</stageThreshold>
      <weakClassifiers>
        <_>
          <internalNodes>
            0 -1 9 -3.9001829922199249e-02</internalNodes>
          <leafValues>
            9.9975001811981201e-01 -1.</leafValues></_></weakClassifiers></_>
    <!-- stage 2 -->
    <_>
      <maxWeakCount>2</maxWeakCount>
      <stageThreshold>-1.3036492466926575e-01</stageThreshold>
      <weakClassifiers>
        <_>
          <internalNodes>
            0 -1 11 1.5247091650962830e-02</internalNodes>
          <leafValues>
            -9.4114315509796143e-01 9.3076640367507935e-01</leafValues></_>
        <_>
          <internalNodes>
            0 -1 3 3.0043922364711761e-02</internalNodes>
          <leafValues>
            -9.2932355403900146e-01 8.1077826023101807e-01</leafValues></_></weakClassifiers></_>
    <!-- stage 3 -->
    <_>
      <maxWeakCount>2</maxWeakCount>
      <stageThreshold>-1.2704621255397797e-01</stageThreshold>
      <weakClassifiers>
        <_>
          <internalNodes>
            0 -1 7 8.7263211607933044e-02</internalNodes>
          <leafValues>
            -9.0524321794509888e-01 8.8309371471405029e-01</leafValues></_>
        <_>
          <internalNodes>
            0 -1 10 6.5669501200318336e-03</internalNodes>
          <leafValues>
            -7.4057209491729736e-01 7.7819699048995972e-01</leafValues></_></weakClassifiers></_>
    <!-- stage 4 -->
    <_>
      <maxWeakCount>3</maxWeakCount>
      <stageThreshold>3.8977473974227905e-01</stageThreshold>
      <weakClassifiers>
        <_>
          <internalNodes>
            0 -1 13 -4.9502632464282215e-05</internalNodes>
          <leafValues>
            -9.1558998823165894e-01 7.9907226562500000e-01</leafValues></_>
        <_>
          <internalNodes>
            0 -1 6 -9.1557893902063370e-03</internalNodes>
          <leafValues>
            7.7168428897857666e-01 -6.4991205930709839e-01</leafValues></_>
        <_>
          <internalNodes>
            0 -1 4 1.1524542969709728e-05</internalNodes>
          <leafValues>
            5.3368043899536133e-01 -9.5462745428085327e-01</leafValues></_></weakClassifiers></_>
    <!-- stage 5 -->
    <_>
      <maxWeakCount>1</maxWeakCount>
      <stageThreshold>8.1722879409790039e-01</stageThreshold>
      <weakClassifiers>
        <_>
          <internalNodes>
            0 -1 0 3.3849112689495087e-02</internalNodes>
          <leafValues>
            -9.5751631259918213e-01 8.1722879409790039e-01</leafValues></_></weakClassifiers></_>
    <!-- stage 6 -->
    <_>
      <maxWeakCount>3</maxWeakCount>
      <stageThreshold>7.4136376380920410e-01</stageThreshold>
      <weakClassifiers>
        <_>
          <internalNodes>
            0 -1 8 1.7223002389073372e-02</internalNodes>
          <leafValues>
            -8.7990194559097290e-01 8.8862329721450806e-01</leafValues></_>
        <_>
          <internalNodes>
            0 -1 5 -4.7512492164969444e-04</internalNodes>
          <leafValues>
            8.3505553007125854e-01 -8.7426751852035522e-01</leafValues></_>
        <_>
          <internalNodes>
            0 -1 12 1.4913910999894142e-03</internalNodes>
          <leafValues>
            -9.1700726747512817e-01 7.8621011972427368e-01</leafValues></_></weakClassifiers></_>
    <!-- stage 7 -->
    <_>
      <maxWeakCount>1</maxWeakCount>
      <stageThreshold>1.</stageThreshold>
      <weakClassifiers>
        <_>
          <internalNodes>
            0 -1 2 -9.1210409998893738e-02</internalNodes>
          <leafValues>
            -1. 1.</leafValues></_></weakClassifiers></_></stages>
  <features>
    <_>
      <rects>
        <_>
          0 0 8 20 -1.</_>
        <_>
          4 0 4 20 2.</_></rects>
      <tilted>0</tilted></_>
    <_>
      <rects>
        <_>
          0 0 18 23 -1.</_>
        <_>
          6 0 6 23 3.</_></rects>
      <tilted>0</tilted></_>
    <_>
      <rects>
        <_>
          0 4 22 6 -1.</_>
        <_>
          0 4 11 3 2.</_>
        <_>
          11 7 11 3 2.</_></rects>
      <tilted>0</tilted></_>
    <_>
      <rects>
        <_>
          0 13 8 7 -1.</_>
        <_>
          4 13 4 7 2.</_></rects>
      <tilted>0</tilted></_>
    <_>
      <rects>
        <_>
          0 18 1 6 -1.</_>
        <_>
          0 21 1 3 2.</_></rects>
      <tilted>0</tilted></_>
    <_>
      <rects>
        <_>
          1 12 6 12 -1.</_>
        <_>
          1 18 6 6 2.</_></rects>
      <tilted>0</tilted></_>
    <_>
      <rects>
        <_>
          4 10 9 5 -1.</_>
        <_>
          7 10 3 5 3.</_></rects>
      <tilted>0</tilted></_>
    <_>
      <rects>
        <_>
          5 9 11 15 -1.</_>
        <_>
          5 14 11 5 3.</_></rects>
      <tilted>0</tilted></_>
    <_>
      <rects>
        <_>
          7 11 7 6 -1.</_>
        <_>
          7 14 7 3 2.</_></rects>
      <tilted>0</tilted></_>
    <_>
      <rects>
        <_>
          8 0 16 23 -1.</_>
        <_>
          16 0 8 23 2.</_></rects>
      <tilted>0</tilted></_>
    <_>
      <rects>
        <_>
          8 10 6 6 -1.</_>
        <_>
          10 10 2 6 3.</_></rects>
      <tilted>0</tilted></_>
    <_>
      <rects>
        <_>
          8 11 6 6 -1.</_>
        <_>
          8 14 6 3 2.</_></rects>
      <tilted>0</tilted></_>
    <_>
      <rects>
        <_>
          13 9 2 6 -1.</_>
        <_>
          13 12 2 3 2.</_></rects>
      <tilted>0</tilted></_>
    <_>
      <rects>
        <_>
          17 0 4 6 -1.</_>
        <_>
          17 3 4 3 2.</_></rects>
      <tilted>0</tilted></_></features></cascade>
</opencv_storage>
